{"W": [[-0.26844067749548567, -0.07567826184143786, 1.9356979956539964, 0.39945446368808774, 0.6766184116077303, -1.0271811401231272, -0.9378092326887246, -0.323757444981596, 0.9226416338459247, -1.1102527617905273, 2.4878593163618254, -2.2551974388048444, 1.9978112524650804], [-1.3080123736393807, 1.5475787029445867, -1.225592042207586, 1.106085712681636, 2.553944990954082, 0.8188173886819345, 1.019742545378754, -0.30527758009340356, 1.4007609317352157, 0.9947389382844755, -1.605535791521615, 0.1634179431307383, 2.6065989845571127], [1.6600471031874238, -0.35882768434395523, 0.04785681543167902, -1.3215778944785634, -2.3553683903042164, -0.7334000334801285, 0.7352356922561863, -0.3360900710892076, -0.17763767359894375, 1.2124850010406298, -1.839639175224335, -0.22430952542631719, 1.9771580459751497], [-0.7424149416347877, -0.20662588983581984, -0.922425373766259, -0.6257511615474206, 0.4896631300964245, 0.04005728009835964, -1.4557370613813905, 1.793877381406584, -1.9184356906276456, -1.4165655633838923, 0.7457683851368283, 2.303673226391083, 2.085146812160775]], "V": [[0.5246419799228861, -0.07473588852450262, -0.057907138387737776, -0.02916094417244589, 0.030012539276130776, 0.17706737055774918, -0.08251591055250021, 0.18578683623818118, 0.18306217731100105, 0.008767730300155286, -0.07935375783997023, 0.08256269541473478, -0.08090970222825672, -0.09554034068083023, -0.07933859010140415, 0.3005830670744476, -0.2676085693061743, 0.08004837222547403, 0.08584704077797935, 0.4593824696180358, 0.47204035939628897, -0.12769883384808348, -0.0024324392105228203, 0.1685507002510718, 0.1322772528064743, -0.13439579554527256, -0.03855986639390242, 0.03769882032042271, -0.08954871155949375, -0.13023023779250717, -0.16152404181137514, -0.05783647611057891, -0.17183558689121858, -0.3753358979451094, 0.27188133813699605, -0.31926002503354517, 0.04414577416858724, -0.0440764013930587, -0.061505922805343616, 0.5862843411284029, 0.1555856956231379, -0.049892086947370004, -0.0767693839238253, 0.20322497734551168, 0.12762860520294908, 0.00042112412022315873, -0.20521081650107073, -0.11612669898482648, -0.23739108448371313, 0.030516146297047905, -0.21277743044830086, 0.12976243174854696, -0.40023635364713284, 0.1018928371854556, 0.1621256177305881, 0.029378132597578863, -0.20098136565948962, 0.03364568533969587, -0.13183710933254913, -0.15595354927475732, 0.43048348535469294, 0.13860433359617966, 0.1929165629214198, -0.2738503005043714, -0.012383724809162368, 0.24985530524272537, -0.039492321878009475, -0.01641953771690862, -0.31995278655220344, 0.13410490963256677, 0.06679798990294611, -0.3925380069278771, -0.2768358774869598, -0.11845051788465132, -0.1389832816144536, 0.1669459906354509, -0.14053121173513214, -0.15161644791763867, 0.23615657968401996, -0.10380479010774256, -0.08270299073778409, 0.051418946657098966, 0.23046524707328397, -0.000639284762597257, 0.061591214267186764, -0.27322696964658777, -0.23894584958851092, -0.05920390037330191, 0.22723033272443535, -0.3264167370380886, 0.1169408414578127, 0.056893176019678, -0.23083185913004, 0.09301270629302329, 0.05012136151505104, 0.23846336577850066, -0.056601769573240264, 0.08432214556492316, 0.21902072089925584, 0.4103168186400617, 0.2036565522253646, 0.3794301426002971, 0.32321968111651045, -0.13721984489566896, 0.29365449273846267, -0.16114999601286303, 0.10631181933231063, -0.46368198739139044, -0.09461499190335865, 0.19756336332477398, -0.12853585822469102, 0.015858810807091117, 0.17907852950941647, -0.06324765604181944, -0.25264452452301545, 0.13358727033381054, 0.16076695528208154, 0.07088827941244195, -0.18526168086792305, 0.12341196774441238, -0.3601703864941219, 0.2429056170525041, 0.22831583780294631, 0.10825273082535992, 0.16995367688543683, -0.1636895452254521, -0.020583113135631263, 0.33137211999870736, -0.20912500481729335, -0.002874594298708, -0.0405200112512708, -0.004014924275716663, 0.06133026636141049, -0.13115897403151897, -0.014832697643897885, -0.06502338980280081, -0.10490530879475157, 0.10741358245582566, 0.6578598722341494, 0.33883828228041424, -0.0014814364234111111, 0.026340845698198202, -0.12600025928505787, -0.020696061234305174, -0.13196518974980515, 0.05750741262237442, -0.260681944224418, -0.21635429286969438, 0.12501989455994733, 0.20010292337659058, 0.12411780751934748, 0.13469719210574876, -0.11994013921209927, 0.027784999029372513, -0.23489715128992975, -0.2366819135369331, 0.42540512561281557, -0.1529304205497435, -0.044663290531365855, 0.22934703912342058, -0.00040237544387850856, 0.1962848430952352, 0.06678166196048374, -0.21636066163462095, -0.044729502202037384, 0.11735944883977956, -0.02262453894668722, 0.03805161715964075, 0.016499702143296713, -0.15404739173576554, 0.2582471618775296, -0.3085090894725354, 0.15037139719789416, -0.013630002735735194, 0.34109072047241684, 0.054421212376851553, 0.27045547843783463, 0.2676846116073921, 0.2416941267285968, 0.17275846099962985, 0.025043609462292327, -0.029234299014020287, 0.24425584527678923, -0.027856842453921477, -0.09791212495973078, -0.14916473444326425, -0.1163089516137184, 0.11670200277926737, 0.03154206140831013, 0.07484518476063022, 0.11960357082207353, -0.07824898034602618, -0.0029638760389419793, 0.01785734836598517, 0.17396116280033044, -0.32261706097576315, -0.03609175104222335, 0.093233862171191, 0.10632734494389241, -0.254501555804246, -0.28247929094272356, 0.022502364863708643, 0.10880660396330145, -0.1857927676528617, 0.25729300750851064, -0.22312214238307881, -0.1027779701406046, -0.06713797972550799, -0.014828180325080017, 0.10710058184143989, -0.03253746068049025, 0.21538057548584139, 0.2508396530265253, 0.16346834651673545, -0.13318338724321063, -0.2686601764688188, -0.13278453793493697, 0.031234225352763566, -0.061608360440038604, -0.5729913904610934, -0.12539901219796634, -0.40347990641187903, -0.17798445212917352, 0.12303271050712057, 0.9259328608075602, -0.10668625882559354, 0.15488478340061243, -0.2987110578951185, -0.24301371085716358, 0.010757791652609466, -0.13948851856293187, 0.24287324478984895, 0.22405086244882397, 0.1646854366122343, 0.06558620037456264], [-0.14646341847393404, 0.0937930497301909, 0.04312600537437001, -0.2018068453130442, -0.08084868420374146, 0.001949439046578549, -0.23067014792530305, 0.0846441514697363, -0.17358076848412368, 0.1503862809112506, 0.07397550273679923, 0.32540300304479597, -0.13608197064532868, -0.1118821390904335, 0.07516522877761696, -0.1178806325819849, -0.07819340212959659, -0.29439183943516956, 0.10877819508350371, -0.11504747673920855, -0.03820462535644023, 0.12522794907268578, -0.25855940992173404, -0.23172637645792352, 0.32741559558992056, -0.17357553891575495, -0.08003925670859321, 0.462834796445265, -0.10441497165061554, -0.14445713200761612, 0.25263155938507187, -0.03402745060456488, -0.108612438986003, 0.03302078231548149, -0.2838514526930272, 0.00963862665183024, -0.15835794928770744, 0.08382791319936303, 0.1540789576115148, 0.019622866595161916, 0.025341100597823747, -0.1607591190748332, -0.15836435647904323, 0.22635345417863104, 0.17194628730617367, 0.02946988924320579, 0.2754357718005646, 0.23716365637631215, 0.0758995502712762, -0.20580139517712193, 0.041168624128596204, 0.10555306358116878, -0.007551159824499577, -0.1658136622751292, -0.029975477779600367, -0.01296932845277806, 0.10491272634957202, -0.19630653795273392, 0.25309785980189564, 0.12257683052570877, -0.040200184428336075, -0.12899200030795782, 0.1648256574257777, 0.3108201056272295, 0.17872693392172076, -0.03249664839366289, 0.1634885022615903, -0.35811629781194454, 0.23724251116337586, 0.05732956805286955, -0.13445358510431046, 0.0777086175343287, -0.15549325390773397, -0.08343261460893849, 0.003636769295959713, -0.06668852001631702, -0.022856520398436733, 0.1917735551600931, -0.4214232841072301, -0.28844840018231616, -0.1718042875987436, -0.04027828334202431, -0.0294752104163944, 0.006019830860447889, 0.004652994674012305, 0.23413531314621716, -0.1683057687967002, 0.035105435745181525, -0.03986377487092432, -0.1963833672111928, 0.05716643584833653, -0.0760894782567513, -0.041797583395958175, -0.000975598583177269, -0.06541490899050638, 0.17868758342781027, -0.015032120008711462, 0.19379277559903318, -0.06429067175186148, -0.41095989540891104, -0.3782868213674541, 0.04120178448293791, -0.18904452909979538, 0.05301873917274094, -0.17890055347136047, 0.14357318065898217, 0.12899110319125226, 0.7234535075608142, -0.09865869956473887, -0.08314915350100884, -0.0775288905913919, -0.052874643274793735, -0.0663465107912622, -0.15386570123493537, 0.09650926800114143, -0.10792954083051357, 0.00602915340250972, -0.1107285428651294, 0.1867764741586724, 0.16788663979721916, 0.1887780108216786, -0.2486560513231844, -0.02638163989061017, -0.09467907866475071, 0.07690199400588572, -0.05030605453376933, 0.30695186666551455, -0.05182847652600729, -0.07746355445236837, -0.05284612678633202, 0.1061063744562385, 0.14386670134045157, -0.1153102647742188, 0.25306475605304996, -0.17424054941294675, 0.06816600695402196, -0.09329342176011575, -0.11548727511677002, -0.059436002443702084, 0.18254606784794572, -0.13581335528525307, -0.40612533068487716, 0.28552962016575895, -0.21102526122886595, 0.04445587383404998, 0.229692553960283, 0.6832528968950368, 0.24705074909239366, -0.0004745716976544651, 0.1287988797619812, -0.23255584969195253, -0.171499561752709, 0.019148068287837085, -0.024719750789618924, 0.22683458619370755, 0.21682887283395572, -0.15488498040938853, 0.26533177090257737, -0.004989019661307969, -0.27186295978679736, -0.1548894531529078, 0.11869853266854165, 0.09636851036016905, -0.03480975882801482, -0.07663859289670415, 0.05887289514460137, -0.03562761155323204, -0.058572523439750265, 0.11978440434860733, -0.26578467937462313, -0.32675698292078437, -0.03261026525513308, 0.10743110439136351, 0.10548357728405781, -0.26814060257020333, -0.12474760026042409, -0.0986042597717734, 0.20009771665532683, -0.13052405305201314, 0.002322377166517723, 0.07625595926784029, 0.02418186238761607, 0.05377326446817931, -0.23719689689582024, 0.14678056813953191, 0.1406621731674672, -0.16221742959293448, -0.030822086811469678, -0.07919089556547133, -0.11401916147488886, 0.1194258861988208, -0.0014417146787944893, -0.07038300925763856, 0.042701016855101546, -0.05186450214374617, 0.1980367754337837, 0.08375729384260214, -0.025789970351888663, -0.27870461188058043, -0.05707409449941261, -0.038228367433598295, -0.18051644926998703, 0.16376608153165276, -0.11004439024715582, -0.27077598077150233, 0.37360047956878406, -0.01207172518578089, 0.14605247435292312, 0.08404321610755223, 0.04080869681607697, 0.22565143500989712, -0.04270980864051608, -0.16265820112726265, 0.011475940816478892, 0.18482261674984313, -0.33312780266824116, 0.13432666361294113, 0.13183135816077687, -0.06255051293990226, -0.19499955446395775, 0.22747427737872222, 0.1248464708512953, 0.179072613468212, -0.2735209648892551, -0.36426980326237113, -0.06604823251554401, -0.08868374624881946, -0.009369795893332724, 0.14384045526567005, -0.3540730711482299, 0.05770886860458418, 0.02894874859392148, 0.2193958082294403, 0.16407897962250204, 0.21072476439106905], [0.4117136961638268, 0.11911632746020454, -0.11806070325900381, -0.0899795342678349, 0.17936897849647473, -0.07701000532568288, -0.5070663600740802, -0.1080453529506363, -0.24061573534718173, -0.33954758524693096, 0.0053711076001975834, -0.40666503910826873, 0.22877804433579846, 0.04795042172829947, -0.17991761982232338, -0.21034684711730375, 0.05487685439319343, -0.0433395000796792, 0.07707464070240713, -0.05126487833216627, -0.15655905058773367, 0.3040963555637534, 0.1746505224320901, 0.10156938558162606, -0.4425396315998802, -0.08460312989146901, -0.20245245094876813, -0.32649875916410165, 0.49060375155030805, -0.011492232036654561, -0.08274773924590717, 0.18040083872359258, -0.31432673699898644, -0.03278194118682801, 0.05143189945258271, -0.2788059568755432, 0.20910237971635176, 0.5466999330934768, -0.15984519986626716, 0.155921371323437, 0.1585224814912654, 0.1568676032652677, -0.46938339018900793, 0.119913099863201, 0.14106057776959718, -0.42565272931908166, 0.13673799264132425, -0.18838256627700578, -0.09674312071797754, -0.1195937395022002, -0.251320915429211, -0.15760443677439445, -0.3627080715397099, 0.1749128333736095, 0.11283560683480956, 0.061985625664642316, 0.22204588531054995, -0.049808992966001636, 0.3476187987708746, -0.11938525999241924, 0.3129756344695893, 0.05110325797669152, -0.0843189793871975, -0.22494995161714196, -0.1368671884587714, 0.04172097360018576, -0.27072811107581546, 0.4588070543160953, 0.08704855141493079, 0.0032347500515297815, -0.2677061281619686, -0.3113616858733722, -0.1598777879663739, -0.0415527361844706, -0.5444583201446658, 0.018744502472089645, 0.9609426971700766, -0.05373046181097117, 0.29984513041304134, 0.3922865797674401, 0.2476192450888787, -0.5311453622892806, 0.21234401318047152, 0.16216285262150498, 0.13034493121897958, -0.44815484739832445, -0.15957977738130358, 0.2071746761261528, 0.21095674617232507, -0.0038395313118726906, -0.040300126785489054, -0.23604270255428494, 0.15294365799745435, -0.05867747616862701, -0.2671660516003378, -0.12957272105071818, 0.1430877004516168, -0.30120607534500593, -0.16130773320737327, 0.04695203997899829, 0.2164610724486378, 0.23715885834329364, 0.10707837916666234, -0.22836176048002466, -0.2807952115384802, 0.03249126743789906, 0.1537179860988475, -0.47338300384701515, -0.040008201731575314, 0.15924308698255615, 0.14374817578226093, -0.4691191246986244, 0.2132985054372417, -0.2011869284891686, -0.06620648004489908, -0.17430676209478896, 0.10665859938023985, 0.4127878332610984, 0.15131186642861952, 0.09252271960156962, -0.3521848715774919, 0.24698309972821184, 0.14456506659096324, -0.20926132726334684, -0.34583329661900697, 0.0677005599108632, -0.14833761393745193, 0.44913233675654024, -0.01947993140568502, 0.20331030713021495, -0.08932282141280314, -0.03480851971915471, 0.15501553400565782, -0.0036110098163186608, 0.24097031658961174, 0.2648553875348881, -0.11090918267331572, -0.039419987860601656, 0.21706417361357086, 0.03917184028316916, 0.0743174723171347, -0.21552070173997248, -0.3666290021637939, -0.24283640983028806, -0.158588368907487, -0.28078368046338714, -0.5199982014150913, -0.011528307860432026, -0.10377869434826388, -0.13874981206744957, -0.32380908804231334, -0.05889423837439259, -0.04840698791202222, 0.10478941733015523, -0.17715530775670088, 0.03675282330998179, 0.6305753075217968, -0.25429010064559776, -0.15213394789555215, 0.20216477067715144, 0.19471880393883548, 0.002851777385391747, 0.2629695284400346, 0.10961741410372787, -0.01901811929976625, -0.13438818985122736, 0.08030385562020952, -0.3984767977376789, -0.03121787893136491, -0.21215427419701047, 0.3152390569370318, -0.09325112989014891, -0.31053451132464366, 0.044962759051613344, -0.040016824704270246, -0.13943281869897836, 0.2744198319211129, -0.2706836890465854, -0.15933815689045752, 0.24477546380465345, 0.017584530022846424, -0.2876257611104372, 0.08162887860280091, -0.38905230225468823, 0.4909566236131261, -0.25614863924903714, -0.18771798163732764, 0.022545594074626644, -0.03166819288630547, 0.22085778895408936, -0.2071172361804271, 0.5000443968302112, -0.18408128965040704, -0.1855932160540931, 0.1599918590180026, 0.04843293429688908, -0.29550159703951095, -0.17581675815509393, -0.38576779820827545, 0.1273788841761201, 0.28015970912668786, 0.15766104940741704, -0.13456437914244668, 0.03450280615807417, -0.15101190195351077, -0.05248271276357628, 0.2643971262321324, -0.09233793162651015, 0.07424505498187552, -0.3258309037119614, 0.09597590628024998, -0.14874785804594265, 0.2283973751484656, 0.08581468049263874, -0.1722822046877722, 0.3590457943112065, 0.1032663906552078, -0.16456077443801187, -0.19598667028285602, -0.05032851554063185, -0.10179514648832183, -0.4101828100762779, 0.224478411569885, -0.07632452728688445, 0.01511229483005201, 0.2079071500443282, 0.03548151487830921, -0.10735150120958112, -0.2871644188692525, 0.07203065935059397, -0.05853521695519504, -0.2808786287946159, -0.29249694857890285, 0.21805093230497702, -0.1799763867280266], [0.0015748934283434423, 0.2775680330835739, 0.2293597676135464, -0.4205442974408686, 0.30320865663768365, 0.15884356259981253, 0.08315199556091635, -0.2253955417235777, -0.06962141731174142, 0.33622075929883505, 0.06246303040004531, 0.24211394449181362, 0.02147844114198927, 0.12857709688703461, 0.0012319383807605736, 0.04195106077238213, 0.19473369707203333, -0.07325036808373585, 0.04324591123418963, -0.21427367508235634, -0.4377089475404624, 0.12259897442055291, -0.13260702588415546, 0.021461074993736864, -0.1832220749773005, 0.03461753156873926, -0.3080611319109319, 0.15473819557499777, 0.25250329515401576, 0.1625080272370193, -0.056450152500204964, 0.1761224106500473, -0.019334161713221703, 0.2554801223901032, -0.30560073654089076, 0.03975069765948656, -0.026982668298198002, 0.0737900355324892, 0.1944485014795898, -0.40989684222867145, -0.1123025209978525, 0.19658250381712308, -0.2755342246583403, -0.051177017112189145, 0.2719672672256962, -0.23272438692451552, 0.023326004617308257, 0.24229282718963896, 0.0674295116912484, 0.00637531362389181, 0.28811389176065005, -0.18199197444143095, 0.2600050067961968, -0.1764075642110051, -0.23424779577818658, 0.07369872817650329, -0.04962032572961833, 0.22137910925753354, -0.231942178188034, -0.27874125410670353, -0.2763412686073708, -0.232125095898266, -0.023842215646847534, 0.0466674696972459, 0.18294419256227365, -0.023263099170437538, 0.2144006262942285, 0.29510764692401564, 0.29430366939688074, 0.029329869563454684, -0.1752488709133156, -0.2464310307458301, -0.06833853542954879, -0.039639865490678834, -0.09808222077401128, 0.17790339792089022, 0.034895382055134185, -0.05171739116355782, -0.45616144110139245, -0.0062178567471496225, 0.0837682546968588, 0.015199423253661673, 0.2027039413019146, 0.3137669347641391, -0.03446933334586646, 0.08409038057237185, -0.08522839513643497, -0.07041829687691231, -0.041267182499638434, 0.12949404589382174, 0.17237651755782052, -0.1661311404575884, 0.2977865034610745, -0.2374669218966262, 0.20942331596794828, 0.07159119850458316, -0.09392823192091558, -0.11425885100669239, -0.24337302830419455, -0.2477874956398194, 0.03569764719084001, 0.018884255034059765, -0.03702843471405828, 0.030349333561875746, -0.08709553737992079, 0.04466397148469331, 0.16395758356648332, 0.15134218965120913, -0.1367903798824705, -0.18901421929362913, -0.2963897391455051, -0.14668692370834652, 0.22147521358554068, -0.026444015902786135, 0.2493930345365975, 0.1729495162444066, 0.10282142847172049, -0.20564808223831918, 0.16157793677730478, 0.23924775061744322, 0.1521567899957008, 0.048953915959013924, -0.029684985249461393, 0.07744666501615062, 0.025541670095466075, 0.027648798770952065, 0.18112793726808826, 0.03252838602092496, -0.10497501733310158, -0.08199467803412953, -0.08765151502388938, -0.14348643254814902, -0.07263726280744913, 0.10955039111865521, 0.25601988793922925, -0.045843984039787344, -0.04931833155563486, -0.1385090742685889, -0.3008809028140982, -0.10291375450849855, -0.31241298222425345, -0.1847092972456289, 0.12328559385063964, 0.003958157544022435, 0.08298826870125375, 0.3207674133328354, 0.4522191320807882, -0.005772040938041034, -0.11949376655256459, 0.016244149080102653, -0.3050256841240674, -0.18776362587151477, 0.13933272433667335, 0.16780701647342275, -0.014839499331232789, 0.3418371993308265, 0.3024373848685562, 0.4010275750372207, 0.0470211712509095, -0.08854495119200241, 0.07288430997537465, 0.36210646331372415, 0.23478727127267293, -0.05020264930684504, -0.3181216414906295, -0.23273408703123777, 0.43033979640712733, -0.08561848346378288, 0.08475938101975922, -0.06996907097473255, -0.18580584423302315, 0.22277197360830966, 0.13270100600710993, 0.0688948041078936, -0.00035165381320756856, 0.203769870028301, -0.3914143879970018, 0.010807385638028692, 0.2667726516041089, -0.10326844887990184, 0.11756834072484584, -0.08675679577004773, -0.16334959653727044, -0.23896511373414075, -0.1539256990631488, 0.14155448483610822, -0.210348802378723, -0.22135782476999993, -0.23665818632289948, -0.27531581017192597, -0.17021240835518736, -0.10418210980614734, -0.10198445843311386, 0.0837765446368699, -0.33151039256254466, 0.06827903997992754, 0.21160322430399886, 0.03749617608521239, 0.024821513159492516, 0.05764648768592393, 0.008693683559105148, 0.26908648239163246, -0.27580453678426053, 0.14113516608969162, -0.03267698607293253, 0.18511324804025772, 0.25870305575501196, -0.020784223951878626, -0.04253510099272473, -0.1433222578220522, -0.07619607624127664, -0.17894428037957644, -0.25446098856620486, -0.0536223711171939, -0.125583571908078, -0.15467097125745377, 0.18394517133536878, 0.1039603997258267, 0.2476219254037955, -0.15141009201080963, 0.16267642379159547, 0.1416208919435199, 0.25992942203208447, -0.3590510978779241, -0.36315446011896707, 0.318601406443723, -0.04160728224710357, 0.022956597972584057, 0.036319660897662025, -0.2946910378856701, -0.3686152968744001, -0.1009062286299083, 0.07024119190262829, -0.1978005719719862, -0.11020956933712825], [-0.8319154481332748, 0.2406927846782688, 0.19112693090453195, -0.20390270182304762, 0.1447339368384705, 0.14456937747195736, 0.1548093295668213, 0.21972360269050234, 0.02454475793193855, 0.2729121522586159, 0.026888270208970777, 0.05573869253255628, 0.09637356902596134, 0.15418602786754873, 0.4617572259324853, -0.1854859351307577, 0.23848137279320822, -0.37294988618715297, 0.10729457867556341, -0.49110442558632295, -0.6150037428342477, 0.39633486515565525, 0.19150517144682502, -0.07108758241311355, 0.2720184822325154, -0.11960968572165362, 0.11289792396227287, 0.2566749662682365, 0.05697556026412584, 0.12367905377589378, 0.5755340084279553, -0.02314496996450721, -0.06202519566798782, 0.09498732483795663, -0.3159497014056565, 0.09386340020583335, -0.2122504738931457, -0.008542068721846046, 0.22157348153186346, -0.8093697489608856, -0.3173857380766435, -0.22969355790793153, -0.1578303523348, 0.07381252462527814, 0.16431898914524093, -0.08018629388604047, 0.14926158361469, 0.244489557868267, 0.018948585321146395, 0.24520525643720398, 0.44840935293929723, -0.21855590274847497, 0.552768044892251, -0.18574424321777008, -0.44559467778689743, -0.1416130116565031, 0.12890612412763514, -0.18143715455595888, -0.15411773944688834, -0.13554961441646915, -0.3438144548472862, 0.18630165104450355, -0.16104489502654107, -0.09190455087657484, 0.26446154450240356, -0.10310134304069396, 0.27936820740420065, 0.018643216209737485, 0.25951056145536816, 0.24460650678379406, -0.06695810686280003, 0.19894940082347995, 0.3309467900260618, 0.36440913142554154, -0.06742212010916869, 0.1553121788226837, 0.14849585661367642, -0.009648514584089591, -0.4817668453232539, 0.24882011259554962, -0.16778562780536624, -0.18531095681245557, -0.06168604268243313, -0.014589332766073342, 0.09043946430037135, 0.40904595769211105, 0.09233701257440095, -0.010133770163018222, 0.10054303560178468, -0.12357755957063549, 0.246825178474262, 0.02197846515819506, 0.34002577809285917, 0.35252942101319507, 0.4575428620911783, 0.008304920960983774, -0.17143863261208359, -0.007831507004758627, -0.027241956676649543, -0.6099317182847167, -0.12498396716716413, -0.16350768767892165, -0.38929259430049135, 0.06214841623947838, 0.04862397728591907, -0.07890375575846927, 0.39652359878654175, 0.6142674977820791, 0.2412404696786987, 0.043484462196832836, 0.11122394781395525, 0.12196938997264563, 0.08660041377995305, 0.20163976137518583, 0.11544877679838304, 0.11759973409629947, -0.12946870289877574, 0.08133961449992633, 0.1246478072097617, 0.30328158586440773, -0.09382795725768985, 0.17189274189129242, 0.06690694682358203, 0.01817628748146154, 0.3578981620880852, 0.22272316881633578, 0.06910404947086264, -0.21261895824611948, -0.2801228624047629, -0.18130946718653404, -0.18761482668664592, 0.16670673378755674, -0.12328334757871796, 0.019515862782943153, -0.05127790218904891, -0.09882090119056253, 0.01018101002376752, -0.32208675256639646, -0.8806309072944981, -0.049528888374938206, -0.3909468476139841, -0.6395742632093794, 0.026519743654650204, 0.10928945716342926, -0.15710947958262628, 0.2735593137827754, 0.5225159451230726, -0.0022391457143727442, 0.20057114988811164, 0.14235650655135307, -0.29797039283029503, -0.09569135596418751, -0.31423672418395, -0.021096873208115662, 0.38679585279221856, 0.23147096480968984, 0.2842933505549685, 0.5110743472021303, 0.3943409085161345, -0.22207227455235531, 0.28467847872938307, -0.03072862833019702, -0.10829184657494395, 0.036858308159248704, 0.0643947708480555, 0.1875204324198706, 0.4338960991211731, -0.006152589872720286, 0.04802261720924374, 0.04839156481449618, -0.5244484878948829, 0.20566697878403142, 0.15310557843607744, 0.24925350319419884, -0.13420335608546644, -0.07985966307922836, -0.2538668811443737, -0.04140490204448995, 0.1639328534470035, 0.11979008619080816, -0.21270472558704256, 0.061111158554218385, 0.12429820927225775, -0.0016426239825085508, -0.34479085745356347, 0.22958494484006198, 0.37028721403194315, -0.06484882653698998, -0.016992932398499895, -0.1335845183163904, -0.2403420001400249, -0.2691613943877885, -0.3887002496637781, 0.22076519852380744, -0.14869124029674033, 0.3482690876544308, 0.508309828461441, -0.21757639306166696, 0.14149987903572583, 0.04830989173998504, 0.19606223903177966, -0.13472874685843286, -0.46561175856243325, 0.38866383359816303, -0.3935383462721651, 0.1157943555929583, 0.3258677110698184, 0.02660969821955995, -0.0451632688899651, 0.20085482780680725, -0.11178278297245381, 0.22466464401724154, 0.12996561457924785, -0.6157150146582296, 0.3159247146871011, 0.08460443816328488, 0.27936112693346277, 0.3608290273067975, 0.2801054446173117, 0.05512403045148717, 0.15931098434983826, -0.0418295775309372, 0.4444321896219384, -0.2926609632177838, -1.2049413739854482, 0.43856188159627274, 0.10952683833266853, 0.0456081353934705, -0.1962569259875431, -0.4561803298877695, -0.2494068090354314, 0.07843676038374026, 0.07922966424715444, 0.10070051269786995, -0.19280044606475782], [-0.15767770989299001, 0.2169998810148277, -0.028927002536621324, 0.13055313526390325, 0.07246101949169892, -0.3122947498344896, 0.3190976841844935, 0.0574154096975014, -0.16235603789371197, 0.15665997962535458, 0.2500751449975161, 0.12150217076209165, -0.23847795797289045, -0.18701347505905724, 0.025049008883897397, 0.1339735008012345, -0.23984717102885528, -0.04792042392472459, 0.05492657480620289, 0.09292112584688655, -0.3212483266051211, -0.14045121024981697, -0.13421484657283972, -0.24861237479282947, 0.2341734743758596, 0.16131000926905437, -0.10405100260339312, 0.3745499713918794, -0.15371303800160246, 0.002643945419256084, 0.3047979321980877, 0.011386811577650048, -0.07521861028975806, -0.23914269959007387, -0.2152546059197671, 0.4245225055218753, -0.008126357699482547, -0.3275684535636393, 0.2225219854651433, -0.2561869489101072, -0.37115167988530745, 0.0783561300461999, 0.07033975109376672, 0.1295755611679104, -0.017338781446937193, -0.02743422116276173, -0.08258931810050538, 0.18164315141408416, -0.1317791985478346, 0.15360743933017412, 0.0010590283834192554, -0.19882099536086972, -0.06177914755318654, 0.17504365137009598, -0.14003477212854246, 0.021623070033531373, 0.087008874460696, 0.17278274012205003, -0.30843105876913884, -0.06302250378067878, 0.026231476338500453, -0.23739121129779225, -0.12213231756022139, 0.1369922525834391, -0.02701881203627262, 0.059933324550145745, 0.11243618455376514, -0.004975252461002735, -0.01775014420999643, -0.08805205204274409, 0.18105886513110325, 0.144213149558319, 0.17667209239054818, 0.15777612980912994, 0.28493022378157723, 0.15696705550871706, -0.21609771149448984, 0.20369760117145158, -0.013026606519795692, 0.00781049338762324, -0.17447877152315766, 0.13133033897268798, -0.11335086341193255, -0.0662621926316968, -0.0004925083547593196, -0.08040053451142977, 0.28063765887464603, 0.07635578947465457, -0.30147652842060574, 0.24824745103743556, -0.10235441774113174, -0.043831985118092116, -0.269651448768737, 0.12716712089900464, 0.38682081236784, 0.13701254570663837, 0.21592694563639594, -0.0545822155923778, -0.16471390569566338, 0.0019777424545120072, -0.1339876576945532, -0.24969838562782012, -0.1140368631493267, 0.22152029095294326, 0.07933746506974554, -0.1794127738838016, 0.025738799247146553, 0.30315671159171736, 0.087909234568711, -0.2067020789424187, 0.1071453854709057, 0.07662830194689182, -0.2681703493357857, 0.11034341761152114, -0.14538345687501453, 0.17458808417756358, 0.15964934330586522, -0.34189974136565726, 0.2181078677621555, 0.18046608260920158, 0.3945202970572806, -0.20368225753279445, -0.11201371775945153, -0.1958310931388119, 0.2052623557673153, -0.25685899535397577, -0.013567073013453217, -0.2003648056459342, -0.23421266748507857, -0.17133937435832522, 0.19780303456885526, -0.14713785865966414, 0.007468821933000332, -0.10978592317987963, 0.10344449692664578, -0.059478023528943956, -0.19767169208934895, 0.24180375379100547, -0.002061703608267177, -0.19789936552671883, 0.09959005287341213, -0.20480336712034644, 0.008987753581716421, 0.22016138520362052, -0.028782825072147928, 0.38525533797589345, 0.5348077346829889, -0.2480780472038156, 0.14615880957060004, 0.15585638160221532, 0.19807822264801855, -0.08866069576109699, -0.20543176870321112, 0.23194248131068948, 0.288890772639667, 0.0443266021995721, -0.1768247187340063, 0.33141183637218785, 0.01911221309574663, -0.02743790005747269, -0.25418392807780466, -0.02343050919860635, -0.12024843658963552, 0.10416395863166905, -0.14950001453372114, 0.2379210291691326, 0.23666466846154957, -0.06835193573838212, 0.0923546513012271, -0.07368765438426486, -0.2947801568505595, -0.07182420321894417, -0.16760720028831502, -0.1404652038591044, -0.016993286265536128, 0.21481378336199272, -0.2570715543269378, -0.06352054288929031, -0.197480011147501, -0.04579996085417269, 0.17919227603894988, 0.2516534825029122, -0.26398934027788473, -0.013139700145704853, -0.09499653860367265, 0.5310283013007456, 0.058740461890518035, -0.05987043535907638, 0.08462962816187045, 0.0935265446289409, 0.07773573993403232, -0.07829681532284852, 0.08293894670023629, 0.09214427179526671, -0.15922823950009585, -0.16014308806702182, -0.07984093275008473, -0.018963873016866462, -0.0457212498401637, -0.13442703818500557, -0.1393894438768455, -0.22445430434559788, -0.006420286172311143, 0.20263518641999856, -0.15522212797325757, 0.015748009734504194, 0.12877029834844822, 0.10609911477700588, 0.18254515775625357, 0.06941511208060995, 0.2642773482869967, 0.05346231326678573, 0.06073528836700749, 0.04991877917491187, -0.027071124553001598, 0.10073560529972707, 0.22817389346088404, -0.05514629209898964, 0.11588726808267102, 0.16951143206357952, -0.18139337208433481, 0.08412029705651827, 0.09897998883928406, -0.2643891715321651, -0.25526822076320205, 0.0917431770441474, 0.14438872018342255, -0.0595485317369711, 0.03957567284295633, -0.1224953593624398, 0.0928044776020327, 0.008064633935547957, 0.2565994908991054, 0.09573498430898783, 0.027361786258878647], [0.22007402119537092, 0.16928771055535333, 0.19478127749896207, -0.07780737648108625, 0.20823010214820123, 0.11120410423963051, -0.21657275148967606, -0.010995297495782944, -0.09743002078565297, -0.255358472236858, 0.20508427796461529, -0.08939396962920187, -0.13782058503219669, 0.3546277043530919, 0.17113705758464554, 0.09366716635470934, -0.004753906960067779, 0.03828897574101499, -0.12645907535328643, 0.5582974960712521, -0.11911306978136037, 0.07173075016971381, -0.2411651997945307, 0.06573128833488952, 0.253121933355394, -0.1848949466808904, -0.05542126028950855, 0.4950382916128355, 0.18832608043900695, 0.015941209734438782, -0.3126406443281575, 0.046106394992964136, 0.15614230767499118, -0.06429819972002249, 0.09550234276606814, 0.029112548328474343, -0.07240318019421518, -0.1577179630327351, -0.0010735222570619207, -0.05696145546937598, -0.08873345185463401, 0.11112168241979456, 0.021876020301721553, -0.04836856877240221, 0.19710879777817325, 0.07366620831898404, -0.018472325923498158, -0.03799772410357884, -0.26072134652784185, -0.015495569723536069, 0.011484525253348723, 0.24163389721824835, -0.09236054207006907, 0.10133700958137257, 0.05499878501931378, -0.11445472105257813, -0.14762607749620082, -0.16339469937225842, 0.039421799804984434, 0.2038275992743775, 0.32733503892327515, -0.05331795081241042, -0.08182624082315518, 0.3909493651800154, -0.10835135483307101, -0.16396099737899017, 0.22868349298151053, -0.008074069750503482, -0.10555343701272867, 0.29188944031012165, -0.1400994798075454, -0.0355736627776757, -0.07892758028487755, -0.06708379958872207, -0.20771995846389402, 0.09338135752565614, 0.1346555044216652, 0.03849353200798512, -0.306461782007152, -0.31356727826896125, -0.16822793835580233, 0.38254763644104084, -0.10138546669931073, -0.010104333314153604, -0.28297704002966684, 0.1583759193758838, 0.19361929057157243, -0.18948222609787047, -0.13535228274431255, 0.06693912358330789, 0.02973575489712299, 0.1575992552209388, -0.370908372276219, 0.1785192512207113, 0.014967159139765773, 0.17090090709689337, 0.11792396347683443, 0.2437074523791207, 0.054448421263058065, 0.1363762238876602, -0.2925749852490482, 0.10499631845000827, -0.005419787132258387, 0.1704682800623332, -0.1056815797037667, 0.1578350365678569, 0.2730023761745998, 0.658119472256071, -0.3393209221228385, -0.09753592738068248, -0.27663759246447145, 0.18964595652442218, -0.17692108234807752, -0.25496456245713245, 0.05578734733152208, 0.2134437655735167, 0.05663821057615778, -0.20581712516839862, 0.06951348966359454, 0.09410455391418576, -0.30873806911623597, -0.09641203137604913, -0.10039036407418937, -0.33181791199065763, 0.1139136305070391, -0.3133211365982121, -0.18211298148853064, -0.12183691939791315, -0.2253738435767778, 0.2559262175941698, -0.1382129984039497, 0.04479272395272908, 0.08946846402337294, 0.14361275593175785, -0.20866584906547547, 0.0028398588569019303, -0.004640570141117807, -0.0486692502564564, 0.20616169069029136, -0.009159451982691979, -0.054132982354832736, -0.27114195248338696, 0.03678298016181149, 0.19164778952986558, -0.20965965077241608, 0.4278681798078782, 0.5111292701270763, -0.27435108745093756, -0.1419769422282027, -0.3149612335696229, -0.292830746066377, -0.28379484003388594, 0.19894215469594423, 0.10797280688909831, 0.272421432286806, 0.4290665651262448, -0.03914964871061575, 0.13609367285107712, 0.04743736493021351, -0.38967926549623666, 0.046358125464941204, 0.12534006605167558, 0.12241192200408171, 0.032385179210054564, 0.18883304843730944, -0.02967655488823412, 0.09285085149420688, -0.281068855212296, 0.13387179108629282, -0.05044486119476731, -0.16280111791510005, -0.0674890255483864, -0.07084554990543732, -0.04476739084491692, -0.07911883514491475, 0.09122374679181355, -0.2689756801051887, 0.5664248329387291, -0.20500894254890376, 0.1732228259445603, -0.010338499086301939, 0.21069995681679374, -0.06361969757280315, -0.2855961363085166, -0.01950611860455109, 0.8366418417662681, -0.2748995213785935, -0.012833531402926259, 0.2221865341597353, 0.13395150466742248, 0.14618596713266233, -0.25925228260507666, -0.10525401874124385, 0.4073914373610189, 0.27784035604597407, -0.2377338685785215, -0.04977196402199413, 0.1329973201478669, -0.01847144660616686, -0.03457048563207192, 0.10944680996993651, 0.10796879672085638, 0.32493747416091945, 0.10812715301179336, 0.12396960206819657, 0.18543387149111792, 0.007890162912557242, -0.004481503291685394, 0.27337064022522084, 0.04955207141591666, -0.0629878133588895, -0.014947500147563292, -0.1951811171628551, 0.4842788542576125, -0.20967704946612842, -0.6415304015934324, -0.16872290287886565, -0.05296586004566654, -0.014492423903349717, -0.5149606763486323, 0.09260483237101075, -0.013214341969499614, -0.3141710584439618, 0.11040459578551856, 0.8512315736462979, 0.008031090359177631, -0.10556558470139252, -0.35063311117471846, -0.08049728869658755, -0.2797935009239887, -0.18808793622296013, -0.1096037003264089, -0.08574965867604917, -0.15487842638097898, -0.11189311702144329], [-0.1921884883630365, 0.18435967563304972, 0.05663565209604479, 0.1709238316162192, -0.14363514732880125, -0.27151687290945165, 0.09668765325438504, 0.0471805629847126, 0.1477655014735604, 0.20889046312126316, 0.23895845526554377, -0.0655292792431562, 0.2426223395467489, -0.22077419527258946, -0.0617565067858676, -0.13228881185144856, -0.15935843321931395, -0.0029864275245963193, 0.12395751092135913, -0.37487260721787274, 0.1678264070242973, 0.18270244321790613, 0.07650763431639064, 0.09312748659007299, -0.059339027745392986, 0.4477912032814146, -0.08469986268992062, -0.07716649597781045, 0.010382636854683326, 0.09289980545538921, 0.1862225881780211, 0.16855454282516907, 0.16225418779456063, -0.03708460324430318, 0.2176411050071826, -0.07090020281383046, -0.029376423067649024, -0.4070055680873541, 0.19045323634181993, -0.32278521976906077, -0.2015217093377981, -0.14672720766411831, -0.145394261256284, -0.12174467620599629, 0.03226026317249504, 0.09164640423649517, 0.08429859095047229, 0.02231028672512056, 0.13502460318609202, 0.18588598686582558, 0.0643652402523845, 0.13773867770740583, 0.015073235040784684, 0.0396376964100638, -0.37557296973661175, -0.015496785447446005, 0.09157432856411427, 0.14542263889245702, -0.03879958643657063, 0.08125119513085532, -0.12235784135917697, 0.10585317657204857, 0.09683043117986759, 0.021702662425208206, 0.3789309200362853, 0.21061331910057368, 0.15313454013787328, -0.17862520385159136, -0.26813465769312134, -0.24430096141484584, 0.15741504330536607, 0.18095815847047275, 0.1151593306600844, -0.1848209920088852, 0.30846929246214894, -0.13057003061499672, -0.3650175416109376, 0.012569021901152836, 0.1842575464904293, -0.19807104132238174, 0.19389936303587826, -0.1766953345661876, -0.32425393258258534, 0.048068573220233925, 0.2579726262311774, 0.10647820449947448, 0.17107670988843413, 0.008269439954971822, -0.008598464844273334, -0.042951478868262345, -0.1465889331564652, 0.24221972828399255, -0.20063338945367923, 0.0007484016047480023, 0.15793769439177055, -0.16175025885867253, -0.13220834448343532, -0.16958295531570788, -0.15651779482324824, -0.4687841624470186, -0.10601671243782952, -0.25959566915101556, -0.0845782694073505, -0.15308405948866927, 0.0258800748364744, -0.0531184182302837, -0.06222887229083884, -0.030283359119570592, 0.19253627236444332, -0.017477514212348427, 0.1307181766627153, 0.2722184540373388, 0.21005224028724395, 0.30459209131270154, 0.18597311808664188, -0.27382467775977515, -0.05101279163357344, -0.0789254527150976, -0.24322816118751311, -0.07760883531408018, 0.26699755660852154, 0.055981830939217145, -0.02975572475981127, 0.1581433640280454, 0.047368140904453876, -0.2047674373060656, -0.026086458538375854, 0.08446504212231137, 0.40247848577272527, -0.2411432771666792, 0.34187927929810014, -0.05134209607993542, -0.14264932157099128, -0.02414117780561574, 0.13115893438921233, -0.12640926771184077, -0.2690047515977575, -0.24688111733197649, -0.0577254112549121, -0.424216696863382, 0.022910973694879988, 0.28125684770182735, 0.028200144214453063, 0.14731586532631286, 0.13032793126036532, -0.10964656338138712, -0.643743476314752, -0.01802727451614031, -0.22302400981928228, 0.40568402231777906, 0.13442946734132896, 0.023678516517845277, -0.33595149708382266, -0.014665066497221404, 0.05447977541875343, -0.19930191726283553, -0.14555556696899458, -0.3692990217818854, 0.27788369604865654, 0.4201161300964327, -0.17965474137375564, -0.09864890589052268, -0.3444930845837487, -0.023909612920503736, 0.2227068622573345, -0.013725628607773599, -0.16063867037347937, 0.3353466208631586, 0.11092806582760611, 0.23501896707036646, 0.2938083417717324, 0.2446415994675179, 0.06169651205339639, -0.19077534018861178, -0.23117741372909809, 0.13874481163670163, -0.17460028119644222, -0.38398303525880756, 0.011853438536159297, 0.03485574532675558, 0.2205498713328313, -0.21492287195290508, 0.10380151219357281, -0.04517119324686158, -0.22234088434809238, -0.1957883576341101, 0.49103975073909795, -0.24624421088585546, 0.0517515405243713, 0.11920507157397803, -0.08337565922720436, -0.1965571065143882, 0.07729821630724575, 0.11434693889895027, -0.30862271305245864, 0.0850294364043848, -0.0010796326887456758, 0.07680787226512899, 0.31315893607724354, -0.10912635444345502, 0.05384441875604474, -0.07327622212625735, 0.10524053137772471, -0.19601384506778072, 0.22584217416052202, -0.3034508522772902, -0.1659781564694403, 0.40367758352140826, -0.4694230703179501, -0.11341669291850147, 0.15871547239669553, 0.11117234263119408, 0.082346084964936, -0.35605686114722307, 0.0896766352133181, 0.05338505534745241, -0.25870628306874555, -0.15338944068301127, 0.05814131531524064, 0.7177541379133544, 0.09428940227665211, 0.23639618241303315, 0.1445710083532896, -0.10105825172543863, -0.4918127774106726, 0.1303758468047616, 0.16770534864677314, 0.4228245354079251, -0.07305381147229208, -0.15609772520562898, 0.21394941188701344, 0.04058459092669382, -0.29126918657165246, -0.18684848612448374, 0.3610170788377865], [-0.04789436126175023, 0.14901291012864407, 0.11835599958948768, -0.30360000530270786, -0.06749935166208716, 0.015717068618720628, -0.2576230918102242, 0.10494029029154486, -0.16786131048722583, 0.04722120799549336, -0.01579399415259112, 0.29653975335355154, -0.06901677188777017, 0.4137225192629896, -0.14969872278164895, 0.02414823751093771, -0.031964933345704424, -0.03372990942697377, 0.10408532875271671, -0.20478406775302024, -0.023599340479791165, 0.030121370514953918, 0.08931198121208278, 0.04255567939438395, 0.053275185567159086, -0.38464030964941964, -0.013750684770738172, 0.28328983174866024, -0.04432586567538411, 0.17534900989552837, -0.22588297794845724, 0.1526086510818128, -0.15083055448880572, 0.11103090954601733, -0.06030928604228088, -0.009851682524890498, -0.08163398485205081, 0.14455410206773828, -0.06902363511364684, -0.16768834718818118, -0.06365062487084612, 0.08150496285211214, -0.3509990194433902, 0.21026417567665556, 0.3667512286304869, -0.3010753197725192, 0.3096891919044304, -0.08556203036510837, -0.052071869483033516, -0.11563102458523664, -0.17480290952104968, -0.06869136055701075, 0.29179320031849054, 0.01925113872937526, -0.14244260653886917, -0.05000897673553227, 0.13265717430490492, -0.11053621521308883, -0.15201613873784892, -0.09405738698991331, -0.017487333542209358, 0.03205577265996123, 0.07833872887846609, -0.0607461868386239, -0.13996772454058948, -0.39966634936091, 0.44091188687687394, 0.17234904347400426, 0.22423183776610828, 0.21551337213912183, 0.10903311284803872, -0.1031078553351613, -0.028246321607334347, 0.10088670856352383, -0.6391128513742824, 0.14868610079252795, 0.8005637043479449, -0.11653374576608073, -0.03865856817091639, -0.03498267327702783, -0.3552158694439465, -0.05493738723171666, 0.33696099991828776, -0.004680106326924782, -0.15300230826620198, 0.14540330426675, -0.1864273755615464, 0.04151699459778081, 0.18963187413668767, -0.010941526474280186, -0.19167499385978487, -0.23718815749491404, -0.10572121794151106, 0.03763019442540531, -0.003991128026016109, 0.25920800535186195, 0.22642070350478555, -0.0327342476119167, -0.030862365538978323, -0.34139540165328286, 0.002569532986971285, 0.04036965790472002, -0.5208498770513149, -0.16743323950341749, -0.2089850561250801, 0.41473479426823395, 0.4911672418985215, 0.8236193205044507, -0.10050196189200411, 0.0246865828827906, -0.3244973949633414, -0.008149361820483722, 0.13915371900258383, 0.006433491524391307, -0.08577250327285325, 0.11978610076702462, 0.13744453845563515, 0.23415925836638068, 0.3679132422026019, 0.20089591349280878, -0.49262523092357585, 0.26947755194921164, -0.009237505718835491, -0.3667564878254967, 0.4295756851395035, 0.08955845332214295, 0.16229692458231748, -0.015710630063422625, -0.2709307754582481, -0.06532564670983725, -0.13065300116407, 0.05684807082806778, 0.17909714703329369, -0.015572659316192868, -0.09710562358350706, -0.26748231784250753, 0.1039296743346751, 0.03390160738019159, -0.045599032842624794, -0.012751115234453592, -0.4272531477707567, -0.6049398386094111, -0.16774987988784912, -0.025922033283920832, 0.10328838958139996, 0.4668734465489155, 1.0470880109158311, 0.20311158270012558, -0.17449137872468531, -0.32684792633528714, -0.18136154286527514, -0.20970298348246091, 0.07830886452809675, 0.051199734617789525, 0.24121931278776323, 0.5199765271854981, 0.19306247503532242, 0.4709064112302937, 0.20285365844856065, -0.659115484273982, 0.05985953311630976, 0.3402271372072014, -0.03716632059154528, 0.4129108607113607, 0.07323818179307051, -0.13542324224255753, 0.2243828455570647, -0.11054701948950858, 0.09352686756270139, -0.24695075289101093, -0.006440998257577593, -0.06451433046935427, 0.20295063413990896, -0.00016038284384584155, -0.26192462328800925, -0.08551799926599177, -0.12116859202736242, -0.0827455959252711, 0.08727041479367796, 0.14504887484083936, -0.6270225108742135, 0.021083538596180885, 0.04048575793722802, -0.2317908935339035, 0.29848039875471544, 0.40292172080658323, -0.3720328219005197, 0.09134368298718962, -0.08382408203040864, -0.2808133429172947, -0.1271985404355027, 0.19076180786815775, 0.18372371349593233, 0.26362654881443004, -0.08243229543904487, 0.08723217389983436, 0.30265821238860013, 0.23801438062155464, -0.35085621772535114, -0.010027630709524178, 0.23328926599451927, -0.03459426275583438, -0.003189054807383025, 0.023306616244151625, 0.021545592935943984, 0.28676041947248865, 0.19100342599015305, -0.1403770163786129, 0.4139079010929975, 0.02807186253959952, 0.06779146245435974, 0.002662857092068872, 0.06637525831094031, 0.19166184003637413, -0.08802400234406058, -0.35231712251935, 0.3619930343828832, 0.24048217390353405, 0.4440036205677817, -0.6345368041921965, 0.0918921409073582, -0.28612791513788244, -0.011985620090981553, -0.15937145244981113, 0.012466191949082895, -0.24514134681601774, -0.1685050765406981, -0.30203239733993265, 0.03810668828146248, 0.085678136599907, -0.29426041193616764, -0.0020058384847358793, 0.18705411144789205, -0.17471350185024467, -0.009052630340393188], [0.37344980229105873, 0.09474693869991728, 0.056882233728277415, 0.025478795723830956, 0.1266975613609382, 0.16826912845378145, -0.16825798811455436, -0.05077437255652289, 0.16041248192204213, -0.30038410580672825, -0.200853399190053, 0.20346166732727677, 0.18616299945191828, -0.04185589746159169, 0.24432716396784362, 0.45485292986363135, 0.12418187146004922, 0.25168179663016393, 0.0031827795339548185, 0.4842896675012585, -0.10646733910300316, -0.04762998839268123, -0.0830068937499173, -0.27974046826694565, 0.029889319408161735, -0.02760815971167401, 0.10960210640138794, 0.15273621697262854, -0.22963609492613823, 0.13129936024293182, -0.20358297751312013, -0.12244084725899963, -0.12205924532222313, -0.3632194165120487, -0.16923129542148982, -0.04167969638022231, -0.20297858260661877, -0.08796260576762524, -0.10049234523886824, 0.20036391033119857, -0.1996824328817477, -0.20542272718462, 0.22070294745378202, -0.04784247400233158, 0.03042657281948914, -0.013177197786760316, -0.07329031061214741, -0.10204855924687208, 0.09293749915560802, 0.1924722809676422, 0.08733605921433714, 0.057619925652679316, 0.10817785844500104, -0.2068275559468165, 0.21851660396763845, 0.05490112364364513, 0.164990557909349, -0.06525955600147726, 0.21903711351234934, -0.18174645276487053, 0.006320009043191981, 0.0817596521981212, 0.23977351438859426, 0.3415179316028013, -0.23235626428672743, -0.20271888300351878, 0.3999797445221093, -0.07626725500402971, 0.07130717488078218, -0.14190935673327318, 0.11732360506663449, -0.1608157479260495, -0.2680061114066305, -0.1473748107302459, -0.14206611798573943, -0.08389107761695197, -0.31500527280002505, 0.22866811072021254, -0.19598850238354507, -0.26400689332770305, -0.24654767160604468, 0.2433685039795683, -0.06079608309775125, 0.00989203844099232, -0.2533710381824097, 0.3555787709540641, 0.10580937266478967, -0.09797535068385574, 0.17338844853188706, -0.22378136482530814, -0.19220232536344473, -0.1778385727455871, -0.16657432220776439, -0.03714360609483598, 0.21291493702673175, -0.1351821906865043, 0.17634007270139931, 0.2539987489688966, -0.17773651034045893, 0.11150913190794765, -0.0780278508951088, 0.22513394423337574, 0.027582089938392715, -0.1787906130657663, 0.0705876451878082, -0.1367539160426978, 0.14976684096241846, 0.6508315919130389, -0.1269768426415602, -0.16324345081880356, -0.08200518181799087, -0.026783276721813177, -0.15575392790815298, -0.1252683578495228, -0.03461448806229074, 0.13329755618892022, 0.41297661086970444, 0.046906164728503764, 0.19923141350150678, 0.031636143327242974, 0.060921452095539945, 0.031145768212870475, 0.11562327847475141, -0.41932170595055773, 0.33779132893110847, 0.1186241355931174, -0.1465662463983188, -0.39010684492080827, -0.20223670553540798, -0.048604855140431225, 0.11384734752413242, -0.10247276699795498, -0.02824492375761311, 0.26215987029439664, 0.10918031021267931, -0.1770592671122018, 0.1559367770506109, -0.1788636646006119, 0.5234384855030487, -0.13756574972209457, 0.0015714986205048608, 0.0011609203073397936, 0.04603957402649807, 0.16345621725014695, -0.1201321185143056, 0.1535470225283385, 0.7208088690084984, -0.36351621602251466, -0.037214036443526256, -0.12921103668008194, 0.04462026020550043, -0.004416475430208162, 0.16290293821377733, -0.1733891306113522, 0.0321432746921153, 0.13641912233712652, 0.140844100525198, 0.48411505809993827, -0.13651389013162737, -0.18499615516937065, -0.14330144146709065, 0.013910468116274739, 0.17149157476503743, 0.2077201778525411, -0.24949910070208908, 0.21920999682686387, 0.33595114314994506, -0.5456870420942129, 0.023933680109080938, -0.17677613084988059, -0.11540463163823676, 0.029684348586946914, 0.10589579657943136, -0.09594328632549434, 0.14547530893532268, -0.01809531423132877, -0.12631010626519684, 0.5048283411578252, 0.2464636863192669, -0.22437497721635713, -0.12108420356999224, 0.025542842753377794, 0.10516545286927048, -0.42068882238199706, 0.267077749607657, 0.7255696690308986, -0.3685521699391499, -0.12743093087420074, 0.2283640732728735, 0.02358358507807706, 0.16668121575824407, 0.11988828845142158, 0.16086663213827693, 0.17343780981093176, 0.07444083828950458, -0.26179721777848036, 0.062287639262150724, -0.08330104213472812, -0.03391291682437172, -0.2629456697174008, -0.08714029948345417, -0.14559719068368887, 0.021457341474829063, -0.14665503322935572, -0.05886012073317643, 0.24789420350304384, -0.17573867014136954, -0.23444860396020195, 0.2958095146156455, 0.11134746352913931, -0.02429377809548947, 0.09206380289561764, -0.32537802821397505, 0.5914864918582936, -0.03689485744007053, -0.6440446154032958, -0.09836502808035434, 0.10962722206763136, 0.06577982988524031, -0.7754299807248944, -0.11458917850455264, -0.011402820713235623, -0.35044901801119727, 0.24269574008275466, 0.7794556812998968, -0.012543412630517564, -0.35347821257911255, 0.0498401140394141, 0.12618515725948048, -0.2802644558756187, 0.010221663424980064, 0.05330446127029105, -0.0022234301348361056, -0.10721188438748265, 0.029459915496554512], [-0.2204768043132084, 0.28129353110654226, 0.27629349765586136, -0.4776694369541305, -0.011431997453647536, -0.05147273716508148, 0.3111089317184606, 0.1485682131369831, 0.0011428804313121735, 0.1468011257357378, 0.07921561317947194, -0.07485597879359676, -0.2273781698895176, -0.016891973518264464, -0.15640715464214588, -0.5539256327209807, -0.21549585169511887, -0.4072964866222195, 0.0871855110388841, -0.4487059838483082, -0.2790770718486894, 0.21504691803368833, 0.2097963400733862, 0.014546699214806141, -0.49033032084687, -0.21957714074888957, -0.34176040658789647, -0.6253766682775712, 0.3102824271856007, 0.14909695713094512, 0.2454294243904035, -0.2606452878815817, 0.03567733785498498, 0.2674490856555972, 0.13851095758635956, -0.13054031381086803, 0.049797020194960934, 0.21706002496521412, -0.05722754794119267, -0.43811802951851075, 0.3056244774829641, 0.38536605415650327, -0.39856655103383826, -0.07523822664179207, 0.05693140827565408, -0.1426473532457121, -0.10529866501473181, -0.04604471173082793, 0.24638766277589505, 0.25398275640562257, 0.025633409063342598, 0.01489143366863016, -0.02902404822446696, -0.005839554606822339, -0.3367583996232123, -0.005597503399017707, -0.23696975661176956, 0.16999788904498128, -0.24910889465819808, -0.5217236917480927, 0.09542777036617078, 0.18954944813382066, -0.27232628137985365, -0.5893859880419909, 0.16087601658160502, 0.007388902244418488, -0.4961214979108505, 0.40418983905885125, 0.03990532897585713, 0.11851337048493626, 0.024018726347271847, -0.1731121797586722, 0.12248807657457907, 0.22754673518775403, 0.20797755270515766, -0.06053483849899392, 1.0439859232112638, -0.27607386339105056, 0.12065170444431149, 0.31585255052086575, 0.6035742793873201, -0.7024712479108083, 0.03946495530478253, 0.023975266695465184, 0.19327202512921532, -0.11881684101794072, -0.007201514072320862, 0.27857378270354727, 0.2912716806584755, 0.04530408268606225, 0.12444566931852802, -0.2653471979393712, 0.2807652255837882, -0.2208823321727982, -0.32222302830228255, 0.04295748283051694, 0.03588561334715909, -0.29961590516275877, -0.1953372940264427, 0.0019454500472298184, 0.2739286940254191, -0.08298438733927199, -0.6047773726028531, 0.1375071470553968, -0.09938255318959975, 0.0514989821749275, 0.12007641020634628, -0.8967855653888365, 0.3254801984657178, -0.10802507834738606, -0.10620255224729522, -0.08255605807202239, 0.3495056627918571, -0.19286047776245813, 0.18205792571834128, -0.29168577011517227, -0.23437298942941634, 0.22050598453874784, -0.28369377587938627, 0.07106266444019237, -0.07860008541207503, 0.14440609665745233, 0.18943660834772222, -0.09695551564868567, -0.15941909156469367, 0.29146686379449444, 0.1311044410767649, 0.09401230973185092, 0.23654168090987085, -0.04671757473114078, -0.14691781005066984, 0.42539816039189793, -0.07183357245937413, -0.2418909577323079, -0.10538198739705658, -0.20971421745709673, 0.1824319005735585, 0.33405908729403755, -0.26088177445151944, 0.230760324883806, -0.15966349459532406, -0.12512811170018184, 0.05803923974601567, -0.15716702100181001, 0.10431377827225145, -0.558041532923944, -0.8670259504863727, 0.39303018331033346, -0.1814218920498833, -0.01216761351980863, 0.004297839202620823, 0.21499082186405247, -0.06514930280785333, 0.07736577425552386, -0.5320466886850476, -0.300516035333689, 0.8000831321485817, -0.14597262430480126, 0.07534010331426313, 0.33842770937464356, 0.3144270529300905, 0.11142837674563753, -0.2947270850132835, -0.23287461639293933, -0.026313120790812765, 0.012352840746120197, -0.3773264424461844, 0.3472612220131141, 0.12375867678849166, 0.1989431550407895, 0.2973768342379511, 0.12181700075686795, -0.2578414667918599, -0.13502342860415806, 0.051684786004303686, -0.29092696386518574, 0.27537295113434207, -0.42450401269205645, 0.057676431147033795, 0.1369074671868496, 0.2900687053391783, -0.16031161798332633, 0.18130700258232668, 0.061367978733952694, 0.3356677422193226, -1.1311322896896765, 0.39847652133768174, 0.08211155933434623, -0.18971523525878545, -0.12384243039384744, 0.056374685197175256, 0.32733512168930773, -0.21324811441457717, -0.7535186525978338, -0.24080963428135743, 0.21753341950465874, 0.07517502646461068, -0.2787018343593124, 0.05894062033116719, 0.3219727958826608, -0.14199900222878883, 0.3177822227303803, -0.047958827436100304, -0.03795255422619575, 0.14411040655375942, -0.13370821566454225, 0.24218046588674969, 0.03428444337744808, -0.41251710636816014, -0.3438689652764217, 0.10165887302215167, -0.2916217957516379, -0.09212696911935053, -0.6245929691941932, -0.102360765266765, 0.39531822207825135, -0.10506704000250638, -0.09755281786406457, -0.07115508225126764, 0.7442717506401199, 0.10837503144871508, -0.2664691787568493, 0.3501510134823444, -0.27891974163145966, -0.6430941611642474, 0.2185636462944216, 0.10917883428611183, 0.011015258482273119, -0.09190760972015741, -0.028399707362335443, -0.10869013788663484, -0.25630831707331303, -0.40347350260871173, 0.018872326717714397, -0.015296019377651803], [-0.10999555930319536, -0.27114846908335544, -0.2852480619900563, 0.10444370495389402, -0.3306342876299784, -0.18059858864781447, 0.06731816626458623, -0.16827969840249868, -0.015359646783017347, 0.20580578207087322, -0.14880054492071018, 0.36658595882506495, -0.004354397634944551, -0.6538584445055369, 0.038630440344444676, 0.41354553387241294, 0.2381208419746822, 0.21014420084400318, -0.009303411432581494, -0.16383037335327488, 0.045688466978915494, 0.11978824362327543, 0.25188642591723365, -0.26252634334604596, 0.3839979183586974, 0.3785848954767221, 0.22847609264397392, -0.24855627205989128, -0.495720216630053, 0.02833884899787607, 0.5169079748049799, 0.12329834080787692, 0.46994663802406506, 0.03439827769031843, 0.19089088046332817, 0.40496606211197983, -0.03652826814752026, -0.47664241230206833, 0.209999889055425, -0.2772156448285735, -0.5112281474461121, -0.030887188718374703, 0.6170762228027485, 0.1906014636205423, -0.16686554694225908, 0.4093227060301919, -0.29137472183368857, -0.145852623471939, 0.1924005474749178, 0.10000479918810476, 0.31155453729272115, -0.1267120732426027, -0.12716638503697783, -0.12755209915559299, 0.03794331208684482, 0.07524221082668059, -0.12458418608877037, 0.02476130594759121, -0.09729092623622589, 0.501430236309343, -0.3608635688116572, -0.17679528667906066, 0.07915874496638389, 0.16626865677414368, 0.15027418087239028, 0.26085106418140364, 0.06071594578628845, -0.6818528981771087, -0.004844874435468216, -0.36448885578874324, -0.08795064701888225, 0.2692301212104242, 0.2324850382108124, 0.061090305093492434, 0.44406253054041783, -0.1262233758284584, -1.2832204446001916, -0.07638842824115757, -0.059423184581325346, -0.24176980283104285, 0.020807313142847596, 0.3625825663452487, -0.2645995631063109, -0.4068385049214551, 0.09941868128569979, 0.19012992421577482, 0.32377157566188397, 0.14719603688481653, -0.17328011214548883, 0.18478657702177265, 0.09745675207745141, 0.5616682189985795, -0.17827983301231964, 0.3017586218000536, 0.4358905810577493, 0.1105147738545178, 0.07995893720069204, -0.010274038401690725, -0.11978828585271953, 0.1310584528232272, -0.16289598100241715, -0.285369650401235, 0.3074587088847128, 0.13539475473704857, -0.1932574587604521, -0.270045797813904, -0.06008174242759311, 0.10264902076346435, -0.09717116454361145, 0.21729381298730238, 0.3571247018326706, 0.20832099719369315, 0.027600529811492063, 0.06427369545887825, 0.01606738564696324, -0.1332020733913952, 0.10063126722650974, -0.4008932931127468, -0.0050420891913476405, -0.0960844455056374, 0.6669249029340124, -0.34138509003160283, -0.11225262596372972, 0.34837678793197063, -0.1268994828008867, -0.03144521757422909, -0.22582141742680065, -0.11673611862745865, 0.3889223935427237, 0.15172252992783888, 0.45601133744213374, -0.09802900769626616, -0.2550896799130973, 0.19205184744326395, -0.0343390896550134, -0.06330432665588447, -0.03462994185877542, 0.18063711618855582, -0.473426595424596, -0.3733777273397112, 0.023332801814930672, 0.5051693127951025, 0.2195422163370353, 0.16913451782528044, -0.028214666532386145, 0.1788916511331476, -0.4140485683202268, 0.1290043502676822, -0.08822461290237604, 0.2848893022385039, 0.5024941087413961, -0.05563464284610421, -0.038967976289583206, 0.14860304024214951, 0.06849015280148667, 0.15615933974964522, -0.995535928194087, -0.11314544710985937, 0.35335742096743233, 0.026933646386026525, -0.11180328399833152, -0.3502244290013291, 0.08621566744582414, 0.05344025584696178, -0.14685454117964825, 0.20574849923301797, -0.11461909632270342, 0.13901963777035017, 0.02756926122959291, 0.09004047413601177, -0.06345272516898792, -0.13222984763052634, -0.09120298463444318, -0.22470356629536872, 0.08460087047388877, -0.015446319939275078, -0.2223437070288215, -0.11071975542623967, -0.1632631912193379, -0.3253258066983169, 0.37576274176225194, -0.0923911101266328, -0.07630594231269451, 0.21770747536936133, -0.6112858337701961, -0.09686496370202458, 0.6533756253799383, 0.012072100400706217, 0.355634128762593, -0.030459085174640625, 0.306750884349864, -0.45966161972309816, 0.05448615822126467, 0.042824601073523975, -0.11897775052410985, -0.08639353219249594, -0.016633768537885257, -0.09991352056185779, 0.5632740161080544, 0.14082223107608047, -0.4366735650587514, -0.6220269830411491, 0.05973085707155231, -0.41743594807497203, 0.24606631373796145, -0.06393190754924596, -0.061383436554998914, 0.07264667978282491, -0.28099807808693733, 0.24472189271787617, -0.24523812180692475, -0.2550845310253847, -0.1570365927592014, -0.34717839071167694, 0.028185629691641192, -0.0481253511630268, 0.04553615767062337, -0.2953257734402971, 0.13500682100698413, 0.5811875164019537, -0.08982915859955182, 0.382101134588273, 0.043695064889781116, -0.33427453383063416, -0.5129675816337932, 0.1838732687118174, 0.13270670882393537, 0.039476816515717994, 0.08712415839160276, -0.42530252881826197, 0.532101593202891, 0.06627822530129018, -0.051115168119213406, 0.1458790406228871, 0.1532097228657081]]}